{"settings": {"LAST_DATE_IN_TRAIN_SET": "2020-11-30", "LAST_DATE_IN_VAL_SET": "2020-12-31", "FILTER_SIZE_UNEMPLOYMENT": 600, "SIMILARITY_REGULARIZATION_UNEMPLOYMENT": 0.5, "SIMILARITY_REGULARIZATION_SIR": 1.0, "env": {"economic_reward_crra_eta": 2, "start_date": "2020-03-22", "infection_too_sick_to_work_rate": 0.1, "pop_between_age_18_65": 0.6, "risk_free_interest_rate": 0.03}}, "BETA_DELAY": 29, "BETA_SLOPES": [-0.005233703270905861, -0.0025096633588151916, -0.009978235905460415, -0.0030498590463604695, -0.009739434907947386, -0.016118405619767906, -0.02216394155353909, -0.01501269383871521, -0.01772321933003828, -0.0035091211514514035, -0.00842426615392502, -0.006421715854186978, -0.007605442605186503, -0.013145828895296467, -0.013021772081998916, -0.011242043826411524, -0.009583325687728843, -0.007332846816941151, -0.012677925062908617, -0.010726278623401973, -0.01320149654376923, -0.020049202898711607, -0.020079903692931216, -0.012961592439659947, -0.009660688484644651, -0.01197325796370973, -0.0031953183140946543, -0.011219460393603341, -0.01161877928285559, -0.010572606153577992, -0.021402323448902912, -0.011571328478690551, -0.015057575233879374, -0.011653349301328355, -0.01420212156352489, -0.015437622231824741, -0.01247166799443816, -0.009058745964208309, -0.016065672658303675, -0.015379928352481361, -0.004690098051335516, -0.0027855147080954887, -0.0017843204990313376, -0.006520659060682759, -0.008618617017313706, -0.011942638319771232, -0.009076932750326299, -0.005580847854404909, -0.01311747891796651, -0.008677318047675145, -0.009906449614086134], "BETA_INTERCEPTS": [0.10550336869678541, 0.09352399879913631, 0.13367068043188485, 0.10161651854073984, 0.1457722708748621, 0.16887787187410597, 0.21729992109816224, 0.17450455331397685, 0.18931639275182566, 0.09984961233900469, 0.12133822448461924, 0.12722467531413584, 0.12175264651385272, 0.1552042495807431, 0.145615506170138, 0.1258875328197989, 0.13389493026715132, 0.1254821302501782, 0.14642572151467384, 0.1563475618087581, 0.16032143059458762, 0.19910298878230218, 0.18446412122461148, 0.15385189814506917, 0.1302208274241928, 0.13736418751161014, 0.1033837852314781, 0.13692185665344278, 0.14309430680693005, 0.13749187639644195, 0.19973224088216823, 0.17203054106935328, 0.18082127751622276, 0.15117289048468205, 0.14160189224730083, 0.17488934332776923, 0.1338827960870001, 0.13066194254313895, 0.17067714865126077, 0.18532521741844085, 0.10703810005198379, 0.09841913100945021, 0.09289613699392442, 0.11940190498430303, 0.12161571930284992, 0.1285837104949546, 0.12668802839364063, 0.10747537477804284, 0.1625164048222745, 0.12008200309258711, 0.13872464377603697], "POLICY_START_DATE": "2020-01-01", "FILTER_LEN": 600, "CONV_LAMBDAS": [27.72427749633789, 62.91925048828125, 129.2318572998047, 264.43182373046875, 542.06005859375], "UNEMPLOYMENT_BIAS": [2.1136703491210938, 4.048089027404785, 4.277402877807617, 3.6710152626037598, 4.371125221252441, 3.5259063243865967, 3.423633575439453, 3.4609005451202393, 4.390212535858154, 3.9631943702697754, 2.5867717266082764, 3.5042591094970703, 2.3830432891845703, 4.411620140075684, 2.3750250339508057, 2.5980374813079834, 2.2534663677215576, 2.4830000400543213, 4.428332805633545, 2.4989376068115234, 3.071929931640625, 1.8633426427841187, 4.299410820007324, 3.195344924926758, 4.691559791564941, 2.994248628616333, 3.1809568405151367, 2.121537923812866, 5.0345377922058105, 2.9758565425872803, 4.2665019035339355, 4.322226047515869, 3.248310089111328, 3.0009894371032715, 1.353360652923584, 3.418184280395508, 2.7211599349975586, 2.9320943355560303, 3.8583884239196777, 3.613877773284912, 1.6023359298706055, 2.3257055282592773, 4.022616863250732, 3.996405601501465, 1.5916776657104492, 2.3988192081451416, 3.0608890056610107, 4.039086818695068, 3.984750747680664, 2.440520763397217, 3.8146729469299316], "GROUPED_CONVOLUTIONAL_FILTER_WEIGHTS": [[[-0.8623685240745544]], [[-0.45006391406059265]], [[-0.00237645348533988]], [[0.8720516562461853]], [[1.3083926439285278]], [[-1.8319092988967896]], [[-0.0032714344561100006]], [[0.017020821571350098]], [[0.9376689195632935]], [[0.7846916913986206]], [[-0.634898841381073]], [[-0.39103013277053833]], [[0.765248715877533]], [[0.5142654180526733]], [[0.8652791380882263]], [[-0.9020224809646606]], [[0.2602136433124542]], [[0.2674458622932434]], [[0.6922929883003235]], [[0.28152236342430115]], [[-1.3684333562850952]], [[-1.136441707611084]], [[0.7635596990585327]], [[0.6395389437675476]], [[1.2692675590515137]], [[-1.3872078657150269]], [[-0.18349117040634155]], [[0.731469988822937]], [[0.4884212017059326]], [[0.7628554105758667]], [[-1.9923702478408813]], [[-0.7254942059516907]], [[0.6672083139419556]], [[0.7401175498962402]], [[0.8266059756278992]], [[-2.0412659645080566]], [[0.2596452832221985]], [[0.7648528814315796]], [[0.628707230091095]], [[0.564267098903656]], [[-0.12891456484794617]], [[-0.3544159233570099]], [[-0.3368719518184662]], [[0.37673136591911316]], [[0.9932129383087158]], [[-1.196645975112915]], [[0.019427649676799774]], [[-0.032719578593969345]], [[1.1447675228118896]], [[0.6738105416297913]], [[-1.0570842027664185]], [[0.19370649755001068]], [[0.6044667363166809]], [[0.5649805068969727]], [[0.7912497520446777]], [[-1.6130324602127075]], [[0.14945188164710999]], [[1.2974058389663696]], [[0.27230948209762573]], [[1.4573169946670532]], [[-1.1152888536453247]], [[-0.1312718242406845]], [[0.4778050482273102]], [[0.8300752639770508]], [[0.3758259117603302]], [[-1.8520358800888062]], [[-1.14521324634552]], [[1.0409947633743286]], [[1.6186996698379517]], [[0.4937899112701416]], [[-1.8565905094146729]], [[-0.5699316263198853]], [[1.2526781558990479]], [[1.0222679376602173]], [[0.8439081907272339]], [[-1.1728674173355103]], [[-0.4200057089328766]], [[0.24613676965236664]], [[0.9689220190048218]], [[0.8804899454116821]], [[-0.6283168792724609]], [[0.018899045884609222]], [[0.4649633467197418]], [[0.5606456995010376]], [[0.7042286992073059]], [[-0.969465970993042]], [[0.7879332304000854]], [[0.4766736328601837]], [[0.38358408212661743]], [[0.5555617809295654]], [[-1.3140840530395508]], [[-0.06866976618766785]], [[0.20318199694156647]], [[1.156029224395752]], [[0.4719393253326416]], [[-0.8908430337905884]], [[0.4366728663444519]], [[-0.03466540947556496]], [[0.5951891541481018]], [[0.26352477073669434]], [[-0.4593994617462158]], [[-0.3329457938671112]], [[-0.4925514757633209]], [[-0.0024775229394435883]], [[1.483317255973816]], [[-2.580217123031616]], [[-0.21124900877475739]], [[1.3222242593765259]], [[0.9738183617591858]], [[1.1125288009643555]], [[-1.5558487176895142]], [[-0.21986360847949982]], [[1.4449234008789062]], [[1.1203645467758179]], [[0.8254041075706482]], [[-1.3072439432144165]], [[-0.3959537446498871]], [[0.5149790048599243]], [[0.5998527407646179]], [[0.6167992949485779]], [[-0.03933652117848396]], [[-0.24180862307548523]], [[0.4485468864440918]], [[1.2529921531677246]], [[0.16725485026836395]], [[-1.1775641441345215]], [[0.210318922996521]], [[0.6509057879447937]], [[0.22740843892097473]], [[0.9219421744346619]], [[-1.1539403200149536]], [[0.07256040722131729]], [[0.6274937391281128]], [[0.7214186191558838]], [[0.2535996437072754]], [[-1.1221498250961304]], [[0.03368315473198891]], [[0.4749435782432556]], [[0.4006294906139374]], [[0.35465008020401]], [[-0.7560990452766418]], [[0.8384001851081848]], [[0.7217393517494202]], [[0.9829040765762329]], [[1.6163955926895142]], [[-1.3966710567474365]], [[-0.06901184469461441]], [[0.9089240431785583]], [[0.7274520397186279]], [[0.6534935235977173]], [[-2.2978711128234863]], [[-0.45931634306907654]], [[0.682558536529541]], [[1.9217747449874878]], [[0.46477916836738586]], [[-0.9368125796318054]], [[-0.7055768370628357]], [[0.45245739817619324]], [[1.149850845336914]], [[0.08268105238676071]], [[-1.498590111732483]], [[-1.053027629852295]], [[1.1536319255828857]], [[0.36754435300827026]], [[1.370290756225586]], [[-1.5895041227340698]], [[-0.022197451442480087]], [[1.3241043090820312]], [[0.33694934844970703]], [[0.6450698971748352]], [[-1.221463680267334]], [[-0.8520716428756714]], [[0.31779128313064575]], [[1.012588381767273]], [[1.3222732543945312]], [[-1.7537246942520142]], [[-0.3384951949119568]], [[1.3620738983154297]], [[0.1112571433186531]], [[1.0902765989303589]], [[-1.899932861328125]], [[0.19727519154548645]], [[0.09953983128070831]], [[0.922265887260437]], [[1.0663707256317139]], [[-1.2837663888931274]], [[-0.7540831565856934]], [[0.7365661859512329]], [[1.1298480033874512]], [[0.6919987797737122]], [[-1.5676841735839844]], [[-0.3267393708229065]], [[0.3632243871688843]], [[0.41000232100486755]], [[1.6217762231826782]], [[-1.136587142944336]], [[-0.27317526936531067]], [[0.514305830001831]], [[0.01356478687375784]], [[1.5590686798095703]], [[-1.5125669240951538]], [[-0.6680471897125244]], [[0.7636657953262329]], [[0.5478187799453735]], [[1.22959303855896]], [[-1.6629095077514648]], [[-0.5278839468955994]], [[0.15898258984088898]], [[1.000220775604248]], [[1.083420991897583]], [[-1.2720608711242676]], [[0.23574863374233246]], [[0.4396874010562897]], [[0.7104308605194092]], [[0.6883097887039185]], [[-1.5120340585708618]], [[-0.27725064754486084]], [[1.1652095317840576]], [[0.6678454279899597]], [[0.4044547379016876]], [[-1.588853120803833]], [[0.10982409119606018]], [[0.7705152034759521]], [[0.7239919900894165]], [[0.5325650572776794]], [[-2.0845890045166016]], [[0.9196359515190125]], [[0.8362395167350769]], [[0.6898489594459534]], [[0.07182575017213821]], [[-0.7716994285583496]], [[-0.5762143731117249]], [[0.46993783116340637]], [[0.42921707034111023]], [[0.8545767068862915]], [[-1.801488995552063]], [[0.18351492285728455]], [[1.318638801574707]], [[0.7943655848503113]], [[0.30118492245674133]], [[-0.8504781723022461]], [[-0.19791175425052643]], [[0.7364271879196167]], [[-0.31268006563186646]], [[1.453898549079895]], [[-1.6999027729034424]], [[-0.3689071536064148]], [[0.6285111308097839]], [[0.9383906722068787]], [[0.9711975455284119]], [[-1.2704155445098877]], [[-0.11265530437231064]], [[0.25702616572380066]], [[0.07824986428022385]], [[0.6725088953971863]]], "VALUE_OF_LIFE": 10000000, "INFERRED_WEIGHTAGE_ON_AGENT_HEALTH_INDEX": [0.685, 0.683, 0.718, 0.627, 0.809, 0.808, 0.646, 0.839, 0.765, 0.757, 0.734, 0.889, 0.8150000000000001, 0.769, 0.737, 0.752, 0.75, 0.849, 0.679, 0.875, 0.859, 0.672, 0.733, 0.862, 0.6950000000000001, 0.808, 0.662, 0.855, 0.762, 0.865, 0.687, 0.746, 0.641, 0.847, 0.747, 0.781, 0.795, 0.851, 0.756, 0.673, 0.711, 0.41200000000000003, 0.5690000000000001, 0.787, 0.866, 0.968, 0.872, 0.735, 0.878, 0.754, 0.9380000000000001], "INFERRED_WEIGHTAGE_ON_PLANNER_HEALTH_INDEX": 0.757, "MAX_MARGINAL_AGENT_ECONOMIC_INDEX": [0.0027285723481327295, 0.002734474139288068, 0.0027149636298418045, 0.002733101835474372, 0.002698722528293729, 0.002695730421692133, 0.0026784248184412718, 0.0026936873327940702, 0.0026890540029853582, 0.002731619868427515, 0.0027165759820491076, 0.0027218845207244158, 0.0027180504985153675, 0.0026966372970491648, 0.002704625716432929, 0.002718393225222826, 0.0027127708308398724, 0.002722038421779871, 0.0026984831783920527, 0.0027032513171434402, 0.002696973504498601, 0.0026874069590121508, 0.002697594463825226, 0.0027030734345316887, 0.0027131896931678057, 0.002711491659283638, 0.0027325651608407497, 0.0027140663005411625, 0.002711672568693757, 0.0027134160045534372, 0.0026841098442673683, 0.002694197930395603, 0.0026839885395020247, 0.002705829916521907, 0.00271249539218843, 0.002696133917197585, 0.0027130150701850653, 0.0027131501119583845, 0.0026947411242872477, 0.002690640976652503, 0.002726985840126872, 0.002733224770054221, 0.002736929804086685, 0.0027190325781702995, 0.0027239227201789618, 0.0027165571227669716, 0.0027152288239449263, 0.0027226179372519255, 0.0027034329250454903, 0.0027189261745661497, 0.0027153033297508955], "MAX_MARGINAL_PLANNER_ECONOMIC_INDEX": 0.00270779593847692, "MAX_MARGINAL_AGENT_HEALTH_INDEX": [-3.0090674044913612e-05, -4.101892773178406e-05, -2.391263478784822e-05, -5.501513078343123e-05, -3.641096918727271e-05, -8.148177585098892e-05, -0.00033768793218769133, -8.136823453241959e-05, -0.00017953713540919125, -5.476094884215854e-05, -6.003917951602489e-05, -1.9584411347750574e-05, -2.692215821298305e-05, -8.299046021420509e-05, -7.80503178248182e-05, -1.1469884157122578e-05, -2.996458533743862e-05, -3.8060217775637284e-05, -0.00028306362219154835, -4.246145545039326e-05, -5.934169530519284e-05, -0.0002345900284126401, -0.00020272599067538977, -1.6491414498887025e-05, -4.7763867769390345e-05, -2.500748996681068e-05, -5.226726716500707e-05, -9.981938092096243e-06, -5.143717862665653e-05, -2.055184631899465e-05, -0.0005827346467413008, -7.382390322163701e-05, -0.0012094955891370773, -1.7349766494589858e-05, -8.910564247344155e-06, -4.672993964049965e-05, -2.3844344468670897e-05, -1.9828426957246847e-05, -6.0026035498594865e-05, -0.00021144225320313126, -3.511341492412612e-05, -2.745154961303342e-05, -0.00011554994125617668, -2.7730202418752015e-05, -6.093723641242832e-06, -4.6192471927497536e-05, -2.1770805687992834e-05, -0.0001274808746529743, -8.22813126433175e-06, -3.4170137951150537e-05, -1.28951739952754e-06], "MAX_MARGINAL_PLANNER_HEALTH_INDEX": -0.0001451095740776509, "MIN_MARGINAL_AGENT_ECONOMIC_INDEX": [0.0020356886088848114, 0.0022419975139200687, 0.002160344272851944, 0.0024188596289604902, 0.0020349116530269384, 0.002246933989226818, 0.002235130639746785, 0.0022626728750765324, 0.002382050035521388, 0.0021890902426093817, 0.0021741720847785473, 0.0017624523025006056, 0.0023508218582719564, 0.001991693861782551, 0.0019486609380692244, 0.002157807582989335, 0.00225676316767931, 0.0023168111220002174, 0.002234051935374737, 0.002510908292606473, 0.0023535331711173058, 0.0017812215955927968, 0.0017329421825706959, 0.0023532791528850794, 0.002227779245004058, 0.0022383893374353647, 0.0023805166129022837, 0.0024882552679628134, 0.0010899916524067521, 0.0021604555658996105, 0.001897018519230187, 0.0024196451995521784, 0.001992126228287816, 0.0022069797851145267, 0.001977990148589015, 0.002120157005265355, 0.0020803255029022694, 0.002108931075781584, 0.0019574600737541914, 0.0020899344235658646, 0.002084167208522558, 0.002109887544065714, 0.0022026910446584225, 0.0022563086822628975, 0.002252459991723299, 0.0023787757381796837, 0.002311331918463111, 0.0021701548248529434, 0.002184213837608695, 0.0020549052860587835, 0.0025167958810925484], "MIN_MARGINAL_PLANNER_ECONOMIC_INDEX": 0.002124679973348975, "MIN_MARGINAL_AGENT_HEALTH_INDEX": [-0.003964281640946865, -0.0010713868541643023, -0.0076567428186535835, -0.002871995558962226, -0.008433903567492962, -0.00899407546967268, -0.009911752305924892, -0.009194649755954742, -0.009664129465818405, -0.002949925372377038, -0.0065671540796756744, -0.007176358252763748, -0.006536103319376707, -0.008727999404072762, -0.007968118414282799, -0.006505947560071945, -0.007439949084073305, -0.0069662826135754585, -0.008316239342093468, -0.008579589426517487, -0.00872408039867878, -0.009386059828102589, -0.00945289060473442, -0.00848479475826025, -0.00750832399353385, -0.00821556244045496, -0.0032150805927813053, -0.007467340212315321, -0.008297407068312168, -0.00770018994808197, -0.009744877927005291, -0.00937261339277029, -0.009218289516866207, -0.00839361734688282, -0.007491708733141422, -0.009187941439449787, -0.007287331856787205, -0.007290090434253216, -0.009112140163779259, -0.009490792639553547, -0.004297951702028513, -0.0013750526122748852, -0.0013287087203934789, -0.0064947898499667645, -0.005829110741615295, -0.006879822351038456, -0.006967827212065458, -0.00535054225474596, -0.008951004594564438, -0.006295738276094198, -0.007645895704627037], "MIN_MARGINAL_PLANNER_HEALTH_INDEX": -0.007381112780421972}